{"batch_normalization/beta": [0.038950540125370026, -0.21332503855228424, 0.09095967561006546, -0.11118432134389877, -0.23571501672267914, -0.020386260002851486, 0.09934327006340027, 0.24952396750450134], "batch_normalization/gamma": [0.7398239970207214, 0.7617974281311035, 0.6775273084640503, 0.979351818561554, 1.1641892194747925, 0.7488686442375183, 0.7458301186561584, 1.0639722347259521], "batch_normalization/moving_mean": [0.0001399830507580191, 0.007879798300564289, 0.012301299721002579, -0.01730284094810486, -0.02953251078724861, -0.012479687109589577, 0.014128616079688072, 0.016122693195939064], "batch_normalization/moving_variance": [0.21085502207279205, 0.13509352505207062, 0.06225525587797165, 0.4593406021595001, 0.06549607217311859, 0.10169073939323425, 0.026915358379483223, 0.04145209491252899], "dense/bias": [0.004179635085165501, -8.830473234411329e-05, 0.008621808141469955, -0.0030991036910563707, -0.0059282779693603516, -0.001213818322867155, -0.0030210772529244423, -0.01063940767198801], "dense/kernel": [[0.0020741568878293037, 0.8091263771057129, 0.22532688081264496, -0.05832420662045479, 0.0839470773935318, 0.2668312191963196, -0.030863845720887184, -0.01036838162690401], [-0.00426773214712739, -0.10483570396900177, 0.33012545108795166, -0.037512701004743576, 0.014435986988246441, 0.2111765444278717, -0.04309871047735214, -0.010018975473940372], [-0.12705281376838684, -0.13977810740470886, -0.14890475571155548, -0.06914728134870529, 0.007828788831830025, -0.09848310798406601, 0.002058063168078661, -0.03525451570749283], [0.0921182706952095, -0.2751947045326233, -0.3294370770454407, 0.08038999885320663, 0.03405927121639252, -0.2525675594806671, 0.03635312616825104, -0.12937729060649872], [0.06122260168194771, 0.1598488986492157, 0.04457560554146767, 0.10753226280212402, 0.09730076789855957, 0.10997340828180313, -0.009535352699458599, 0.004121950827538967], [0.054056212306022644, -0.2730977535247803, -0.06991086155176163, 0.0019529854180291295, 0.11745727807283401, -0.08806648850440979, 0.034522391855716705, -0.07831892371177673], [0.11909130215644836, 0.19156856834888458, 0.36451876163482666, 0.18221917748451233, -0.9597058892250061, 0.030638420954346657, 0.1554112583398819, 0.7671278715133667], [0.24716967344284058, 0.3094336986541748, 0.38236454129219055, 0.2078554332256317, -0.04664217680692673, 0.35323917865753174, -0.08663244545459747, 0.019525615498423576], [0.5765183568000793, -0.5829562544822693, -0.4162289798259735, 0.6725297570228577, 0.09706954658031464, -0.40205928683280945, 0.10769465565681458, -0.05168013647198677], [0.35236406326293945, -0.5330584645271301, 0.03727317973971367, 0.5401043891906738, -0.06614414602518082, 0.019924437627196312, 0.027528833597898483, 0.0498277023434639], [0.6901013851165771, -0.5203797817230225, -0.2362774759531021, 0.8142218589782715, -0.0260784849524498, -0.19093340635299683, 0.029613686725497246, -0.011537794023752213], [0.12706778943538666, -0.5643051266670227, 0.1962597817182541, 0.24429579079151154, -0.06701623648405075, 0.17419344186782837, -0.015730446204543114, 0.08684644848108292], [0.458741694688797, -0.6371157765388489, -0.5607187151908875, 0.6345142126083374, -0.043641235679388046, -0.4037417471408844, 0.06935157626867294, 0.03550305217504501], [0.2696012854576111, -0.021432828158140182, -0.4622144401073456, 0.18679331243038177, 0.5952701568603516, -1.1218202114105225, 0.6986874341964722, -0.55679851770401], [-0.16501347720623016, 0.027315132319927216, -0.0225603636354208, -0.31446078419685364, 0.05890267342329025, -0.018733371049165726, -0.010387871414422989, 0.01942993327975273], [-0.169202983379364, -0.007904497906565666, -0.09492157399654388, -0.19386786222457886, 0.012917081825435162, -0.036828506737947464, 0.014420732855796814, -0.0012100551975890994]], "dense_1/bias": [-0.07520828396081924, -0.004050667397677898], "dense_1/kernel": [[0.3924406170845032, -0.24266235530376434], [0.16375598311424255, 0.056627754122018814], [0.1650886982679367, 0.3685356676578522], [-0.33738330006599426, 0.12209296226501465], [-0.24564628303050995, 0.07709384709596634], [-0.3996269404888153, -0.5706419944763184], [0.22578613460063934, 0.36151689291000366], [0.30777814984321594, -0.1091381162405014]]}